{
    "layers": [
        {
            "input_size": 1,
            "output_size": 6,
            "activation_function_name": "relu",
            "weights": [
                [
                    1.4295278344833275,
                    0.2702021395630325,
                    0.5820309359425527,
                    1.5702081301049537,
                    1.4979065173378499,
                    -1.382079631928445
                ]
            ],
            "biases": [
                [
                    -1.03443957560726,
                    0.8089463886261493,
                    0.45807077911131927,
                    0.38533028734588715,
                    -1.6707131976650944,
                    0.0
                ]
            ]
        },
        {
            "input_size": 6,
            "output_size": 8,
            "activation_function_name": "relu",
            "weights": [
                [
                    0.5458142524063495,
                    -0.5911903860877229,
                    -0.17350594577580755,
                    0.23705915562297633,
                    0.08316385292245013,
                    0.7585066235452013,
                    0.17824200811274385,
                    -0.4982703895539488
                ],
                [
                    0.2511026136042508,
                    0.33854800939627977,
                    0.8130034686375829,
                    -0.11844817881166138,
                    0.16466477323906503,
                    -0.6751194974860171,
                    -1.5401211892637032,
                    0.6019780977559378
                ],
                [
                    0.5145703556385076,
                    -0.5265986698803174,
                    1.254004347126169,
                    -0.8396784137297485,
                    0.017690611278338653,
                    -0.38728001141813706,
                    0.7440210446490846,
                    0.7240664872323338
                ],
                [
                    0.11516744509487936,
                    0.12683758403095413,
                    -0.6794988172808311,
                    -1.1436133741389443,
                    -0.2103372101262741,
                    -0.32934303207796317,
                    0.376783642442658,
                    0.514470637629591
                ],
                [
                    -0.17224822771629175,
                    -0.732186754930385,
                    -0.7287199428018268,
                    -0.8198477382843784,
                    -0.9851155195784316,
                    1.145761147557441,
                    -0.5750477746434219,
                    -1.0106429251479592
                ],
                [
                    -0.723301738364339,
                    0.44888426623189115,
                    -0.9317843567321409,
                    -0.12282565804901124,
                    -0.5169978601554771,
                    0.2233782612891835,
                    -0.29491348367883263,
                    -0.6816383093170104
                ]
            ],
            "biases": [
                [
                    -0.17115432657938862,
                    1.0325996924957461,
                    -0.11507694685370881,
                    0.0,
                    -0.031718510028775855,
                    -0.7088629574409674,
                    -0.03300268930413345,
                    0.7277002384854747
                ]
            ]
        },
        {
            "input_size": 8,
            "output_size": 6,
            "activation_function_name": "relu",
            "weights": [
                [
                    0.0346101638758573,
                    -0.526645752215822,
                    -0.17050821658505505,
                    -0.012872698206922856,
                    -0.677291477521624,
                    -0.2708473274462703
                ],
                [
                    -0.3369202866225155,
                    -1.3479154665855024,
                    -0.6489234517877702,
                    -0.8631413011658384,
                    0.13510035421090807,
                    -0.20089046810413094
                ],
                [
                    -0.8150991734830223,
                    0.14578483642654289,
                    -0.629685372843197,
                    0.025972697898069476,
                    0.38742775639046945,
                    0.06449145537870533
                ],
                [
                    0.5697003422716503,
                    -0.6174129101768263,
                    0.2011708205887745,
                    -0.3424050454701566,
                    -0.4353985745909409,
                    -0.28942483238220773
                ],
                [
                    -0.15577626606368633,
                    0.0520554320167012,
                    -0.5825749203916782,
                    0.45041324347709355,
                    0.22638088901289855,
                    -0.7681218431386119
                ],
                [
                    0.3069885002657585,
                    0.2402383412117299,
                    0.4563805348209187,
                    -0.5161345866710931,
                    -0.4348625938071105,
                    0.13000500414325808
                ],
                [
                    -0.09051340177939898,
                    0.47608793571607566,
                    0.20343306307415004,
                    0.23220261562115974,
                    0.23279477520246852,
                    0.41892915840725103
                ],
                [
                    0.5064427054887942,
                    0.8206365355781531,
                    0.7593183784242026,
                    -0.06672910726827472,
                    0.6894024145008883,
                    -0.7533324862277185
                ]
            ],
            "biases": [
                [
                    -1.6267273695237487,
                    1.5584414731772316,
                    -1.2834526839246663,
                    -0.019266864577775666,
                    -0.7190353882204323,
                    -0.06202385256851459
                ]
            ]
        },
        {
            "input_size": 6,
            "output_size": 1,
            "activation_function_name": "tanh",
            "weights": [
                [
                    1.0110086992967737
                ],
                [
                    1.4795525536780165
                ],
                [
                    1.0263586977113144
                ],
                [
                    0.974792413349051
                ],
                [
                    -0.3510304680938209
                ],
                [
                    -0.30194503939628486
                ]
            ],
            "biases": [
                [
                    -1.8919957424589329
                ]
            ]
        }
    ]
}